<?xml version="1.0"?>
<opencv_storage>
<cascade>
  <stageType>BOOST</stageType>
  <featureType>LBP</featureType>
  <height>24</height>
  <width>48</width>
  <stageParams>
    <boostType>GAB</boostType>
    <minHitRate>9.9500000476837158e-01</minHitRate>
    <maxFalseAlarm>5.0000000000000000e-01</maxFalseAlarm>
    <weightTrimRate>9.4999999999999996e-01</weightTrimRate>
    <maxDepth>1</maxDepth>
    <maxWeakCount>100</maxWeakCount></stageParams>
  <featureParams>
    <maxCatCount>256</maxCatCount>
    <featSize>1</featSize></featureParams>
  <stageNum>15</stageNum>
  <stages>
    <!-- stage 0 -->
    <_>
      <maxWeakCount>3</maxWeakCount>
      <stageThreshold>9.1039404273033142e-02</stageThreshold>
      <weakClassifiers>
        <_>
          <internalNodes>
            0 -1 25 -268472457 1853833215 -268554306 1325346726
            1979524980 -163841 2113735551 2147450751</internalNodes>
          <leafValues>
            -3.4835356473922729e-01 9.7009295225143433e-01</leafValues></_>
        <_>
          <internalNodes>
            0 -1 46 -4718993 -1900972290 1878835129 1308080942 -53257
            -33652737 -1342177437 2012741375</internalNodes>
          <leafValues>
            -3.4833407402038574e-01 9.7521746158599854e-01</leafValues></_>
        <_>
          <internalNodes>
            0 -1 37 -1628504129 -1610825857 -1074856144 771751933
            -1883337418 -318832641 784248354 788524287</internalNodes>
          <leafValues>
            -5.3071945905685425e-01 8.6359429359436035e-01</leafValues></_></weakClassifiers></_>
    <!-- stage 1 -->
    <_>
      <maxWeakCount>4</maxWeakCount>
      <stageThreshold>6.4030712842941284e-01</stageThreshold>
      <weakClassifiers>
        <_>
          <internalNodes>
            0 -1 12 -270012585 -1363268048 -285282578 1857695264
            -134250627 -268992969 -33587209 2147425907</internalNodes>
          <leafValues>
            -4.7410359978675842e-01 9.6532410383224487e-01</leafValues></_>
        <_>
          <internalNodes>
            0 -1 36 -303038697 -1098908163 -1346371802 1073741819
            -1342259691 -16842753 1056937728 749731806</internalNodes>
          <leafValues>
            -5.4168599843978882e-01 9.2993998527526855e-01</leafValues></_>
        <_>
          <internalNodes>
            0 -1 48 -873476641 -33685507 1073692533 2121105404
            1069547391 -1610743809 -4964585 2130701819</internalNodes>
          <leafValues>
            -4.3020209670066833e-01 9.4665920734405518e-01</leafValues></_>
        <_>
          <internalNodes>
            0 -1 9 -685902356 -1862254576 -1862205246 1396818304
            -358070088 -561414136 596672555 1926758472</internalNodes>
          <leafValues>
            -7.2999018430709839e-01 7.1378546953201294e-01</leafValues></_></weakClassifiers></_>
    <!-- stage 2 -->
    <_>
      <maxWeakCount>4</maxWeakCount>
      <stageThreshold>-5.0197577476501465e-01</stageThreshold>
      <weakClassifiers>
        <_>
          <internalNodes>
            0 -1 1 52684849 -457441423 1073446911 1823911670 -1086360135
            -9 -12992585 1069545143</internalNodes>
          <leafValues>
            -2.9886913299560547e-01 9.7344535589218140e-01</leafValues></_>
        <_>
          <internalNodes>
            0 -1 38 -1360036167 -1208034305 -276955425 -1073823754
            -1073807385 -4194305 -1073938569 788250623</internalNodes>
          <leafValues>
            -4.7633033990859985e-01 9.3299072980880737e-01</leafValues></_>
        <_>
          <internalNodes>
            0 -1 21 -10397381 -262147 1878916606 -43024387 -706595
            -33620225 -2171395 2078243693</internalNodes>
          <leafValues>
            -4.5976638793945312e-01 9.0329182147979736e-01</leafValues></_>
        <_>
          <internalNodes>
            0 -1 24 -196886321 -1073413760 566347 -526843636 17957018
            134725770 1092755675 1540847999</internalNodes>
          <leafValues>
            -6.5009033679962158e-01 7.3299008607864380e-01</leafValues></_></weakClassifiers></_>
    <!-- stage 3 -->
    <_>
      <maxWeakCount>3</maxWeakCount>
      <stageThreshold>1.7079830169677734e-02</stageThreshold>
      <weakClassifiers>
        <_>
          <internalNodes>
            0 -1 5 -1355548891 -1367376077 -281018451 -869535891
            2105507839 -1350565889 2134245343 2145384443</internalNodes>
          <leafValues>
            -2.3837208747863770e-01 9.7975927591323853e-01</leafValues></_>
        <_>
          <internalNodes>
            0 -1 20 -62087 -16913 -1 -385880066 -167877121 -50331651
            -1669900361 2137735083</internalNodes>
          <leafValues>
            -4.8835906386375427e-01 9.2344599962234497e-01</leafValues></_>
        <_>
          <internalNodes>
            0 -1 33 -923286313 -587211396 -268436363 -302149707
            -318993321 -33563137 -16827060 2130697439</internalNodes>
          <leafValues>
            -4.7432038187980652e-01 9.0855783224105835e-01</leafValues></_></weakClassifiers></_>
    <!-- stage 4 -->
    <_>
      <maxWeakCount>5</maxWeakCount>
      <stageThreshold>4.5462299138307571e-02</stageThreshold>
      <weakClassifiers>
        <_>
          <internalNodes>
            0 -1 40 1283443949 -45577 -822325251 1342177261 -587393165
            -268452354 -4509 1576787707</internalNodes>
          <leafValues>
            -2.2485207021236420e-01 9.7651559114456177e-01</leafValues></_>
        <_>
          <internalNodes>
            0 -1 31 -1358954577 -1157911043 -1073742041 -1073758209
            -1107427551 -1073741841 -713 1073741791</internalNodes>
          <leafValues>
            -4.7882208228111267e-01 9.2252242565155029e-01</leafValues></_>
        <_>
          <internalNodes>
            0 -1 13 -532645 -134471824 -285348289 -277135764 -551551043
            -559305 2138931069 2139094335</internalNodes>
          <leafValues>
            -5.3966486454010010e-01 8.9236688613891602e-01</leafValues></_>
        <_>
          <internalNodes>
            0 -1 42 -923089633 -135937 1862254526 -1124143105 1323097425
            -1476395265 -1342288046 805040127</internalNodes>
          <leafValues>
            -5.3161162137985229e-01 7.7527499198913574e-01</leafValues></_>
        <_>
          <internalNodes>
            0 -1 27 -360231265 1717522689 1359085803 -1072545767
            -1458810139 705233024 -917831051 2074935311</internalNodes>
          <leafValues>
            -6.8784129619598389e-01 6.0371863842010498e-01</leafValues></_></weakClassifiers></_>
    <!-- stage 5 -->
    <_>
      <maxWeakCount>5</maxWeakCount>
      <stageThreshold>6.2003284692764282e-02</stageThreshold>
      <weakClassifiers>
        <_>
          <internalNodes>
            0 -1 26 -21137671 -285245441 -268435473 -285315075
            2147300863 -102403 -537034753 2146664159</internalNodes>
          <leafValues>
            -4.0190476179122925e-01 9.6468228101730347e-01</leafValues></_>
        <_>
          <internalNodes>
            0 -1 0 -584581957 -299387266 -1610928145 -341332110
            -37756973 -8193 2104852159 2134894591</internalNodes>
          <leafValues>
            -4.1652357578277588e-01 9.6204119920730591e-01</leafValues></_>
        <_>
          <internalNodes>
            0 -1 29 -16777569 -268435457 2139078447 -3 -1090601437
            -16785409 -1430344446 146795263</internalNodes>
          <leafValues>
            -5.9356939792633057e-01 8.4472393989562988e-01</leafValues></_>
        <_>
          <internalNodes>
            0 -1 47 -605200809 -1091195906 -1084260392 1878474750 -69761
            -167968769 -1073791637 1673508607</internalNodes>
          <leafValues>
            -5.4690891504287720e-01 8.1802207231521606e-01</leafValues></_>
        <_>
          <internalNodes>
            0 -1 28 -69509099 1396793421 55505 1497497731 -1047829363
            -1736015744 -879791430 2060020185</internalNodes>
          <leafValues>
            -6.4103305339813232e-01 6.5432292222976685e-01</leafValues></_></weakClassifiers></_>
    <!-- stage 6 -->
    <_>
      <maxWeakCount>4</maxWeakCount>
      <stageThreshold>-3.4695681929588318e-01</stageThreshold>
      <weakClassifiers>
        <_>
          <internalNodes>
            0 -1 41 1214203335 -541114497 -17342521 1879031547 117429815
            -50364741 -872943833 1322225395</internalNodes>
          <leafValues>
            -3.1475409865379333e-01 9.7320705652236938e-01</leafValues></_>
        <_>
          <internalNodes>
            0 -1 17 -46925385 -1203765377 -16519 1858076403 2147466751
            1072676863 -1073938433 2079321535</internalNodes>
          <leafValues>
            -3.0549892783164978e-01 9.7146499156951904e-01</leafValues></_>
        <_>
          <internalNodes>
            0 -1 30 -71303793 1610448895 -229 -143654931 -117506302
            -1073741825 -394592768 312146619</internalNodes>
          <leafValues>
            -5.3474795818328857e-01 8.4081357717514038e-01</leafValues></_>
        <_>
          <internalNodes>
            0 -1 50 -549826849 -604520449 2147454959 -1082130433
            -268526369 -147457 -2258322 2011076853</internalNodes>
          <leafValues>
            -5.5512219667434692e-01 8.0804413557052612e-01</leafValues></_></weakClassifiers></_>
    <!-- stage 7 -->
    <_>
      <maxWeakCount>5</maxWeakCount>
      <stageThreshold>2.2402858734130859e-01</stageThreshold>
      <weakClassifiers>
        <_>
          <internalNodes>
            0 -1 49 1610551295 1879048191 -16400 -1082277891 -1
            -1073741825 -131602 2113916927</internalNodes>
          <leafValues>
            -2.4050633609294891e-01 9.8381119966506958e-01</leafValues></_>
        <_>
          <internalNodes>
            0 -1 14 -40963 -289439746 -286273538 -286261569 -134259467
            -16513 2147430333 2080374655</internalNodes>
          <leafValues>
            -4.2505544424057007e-01 9.3134564161300659e-01</leafValues></_>
        <_>
          <internalNodes>
            0 -1 39 -1129316653 -1073889284 -285212681 -1212284999
            -1073741889 -1 2139094975 1878908799</internalNodes>
          <leafValues>
            -4.1406187415122986e-01 9.0778398513793945e-01</leafValues></_>
        <_>
          <internalNodes>
            0 -1 15 -1358999815 -286298370 -286494759 -290574674
            1602170740 -1073793225 -32770 -181266</internalNodes>
          <leafValues>
            -5.8847767114639282e-01 7.3097568750381470e-01</leafValues></_>
        <_>
          <internalNodes>
            0 -1 7 1364775400 -648265705 -1877901312 -782691939
            -2113371969 -2037612405 -1861627666 -1316904797</internalNodes>
          <leafValues>
            -6.8858867883682251e-01 6.3771438598632812e-01</leafValues></_></weakClassifiers></_>
    <!-- stage 8 -->
    <_>
      <maxWeakCount>3</maxWeakCount>
      <stageThreshold>-8.3413058891892433e-03</stageThreshold>
      <weakClassifiers>
        <_>
          <internalNodes>
            0 -1 8 -1813260289 -1141014913 -67109027 -305152261 -525314
            -402685987 -1476984833 536850431</internalNodes>
          <leafValues>
            -2.1925133466720581e-01 9.8786538839340210e-01</leafValues></_>
        <_>
          <internalNodes>
            0 -1 43 -1342181377 -1125335335 2147467183 1073643509
            -1074020513 -1 -18570 804257263</internalNodes>
          <leafValues>
            -4.8064321279525757e-01 9.2522358894348145e-01</leafValues></_>
        <_>
          <internalNodes>
            0 -1 4 1260453859 -1427380237 -1900827 -290724108 1873526779
            -536936458 -2752577 2138043391</internalNodes>
          <leafValues>
            -5.1556348800659180e-01 9.0242463350296021e-01</leafValues></_></weakClassifiers></_>
    <!-- stage 9 -->
    <_>
      <maxWeakCount>3</maxWeakCount>
      <stageThreshold>8.6366452276706696e-02</stageThreshold>
      <weakClassifiers>
        <_>
          <internalNodes>
            0 -1 52 -1788306179 -547356681 -17416515 -537195025
            -805441601 -180225 -805330945 1879043775</internalNodes>
          <leafValues>
            -2.9343065619468689e-01 9.8441559076309204e-01</leafValues></_>
        <_>
          <internalNodes>
            0 -1 2 -48044249 775155578 1073610593 -297832785 1073217466
            -566525961 -37814468 2134638591</internalNodes>
          <leafValues>
            -4.1838306188583374e-01 9.4062429666519165e-01</leafValues></_>
        <_>
          <internalNodes>
            0 -1 51 2144700118 -262146 -1342570509 -278929 -553648403
            -8397059 -18890753 1006593450</internalNodes>
          <leafValues>
            -4.7966605424880981e-01 8.8615357875823975e-01</leafValues></_></weakClassifiers></_>
    <!-- stage 10 -->
    <_>
      <maxWeakCount>5</maxWeakCount>
      <stageThreshold>1.7942149937152863e-01</stageThreshold>
      <weakClassifiers>
        <_>
          <internalNodes>
            0 -1 53 -671617793 -4292609 2147287039 -4194321 -65570
            -131075 -513 717205455</internalNodes>
          <leafValues>
            -3.1952661275863647e-01 9.8525393009185791e-01</leafValues></_>
        <_>
          <internalNodes>
            0 -1 32 1828703390 503168511 -285352337 -1107309067
            -855707802 -1358954497 -805380345 788520959</internalNodes>
          <leafValues>
            -4.9078357219696045e-01 9.3091750144958496e-01</leafValues></_>
        <_>
          <internalNodes>
            0 -1 16 -699401513 2147483647 -49153 -167772193 -4362753
            -1342193665 -50430561 2144071550</internalNodes>
          <leafValues>
            -4.1442480683326721e-01 9.3558382987976074e-01</leafValues></_>
        <_>
          <internalNodes>
            0 -1 19 -5767434 -197086 -268501083 -278663386 -8388612
            -524290 -8193 1610577170</internalNodes>
          <leafValues>
            -5.6472355127334595e-01 7.7872496843338013e-01</leafValues></_>
        <_>
          <internalNodes>
            0 -1 22 -2130348707 -1274965999 -536852325 -2126426095
            -1044354917 -234848039 -1467921829 2142199818</internalNodes>
          <leafValues>
            -6.8590921163558960e-01 6.4936226606369019e-01</leafValues></_></weakClassifiers></_>
    <!-- stage 11 -->
    <_>
      <maxWeakCount>3</maxWeakCount>
      <stageThreshold>-5.7133659720420837e-02</stageThreshold>
      <weakClassifiers>
        <_>
          <internalNodes>
            0 -1 45 2139029079 -1 -1073803796 1810702174 -536985899
            -1073741953 2147350381 1400765439</internalNodes>
          <leafValues>
            -4.0973311662673950e-01 9.8614692687988281e-01</leafValues></_>
        <_>
          <internalNodes>
            0 -1 35 -1394648041 2097081846 -8275 -537001993 -285417903
            -553648129 -587203004 1291320447</internalNodes>
          <leafValues>
            -5.9119856357574463e-01 9.3955582380294800e-01</leafValues></_>
        <_>
          <internalNodes>
            0 -1 34 -2143757449 -1076465793 -49291 1572544486 -21226083
            -1107566593 2130685828 2126468990</internalNodes>
          <leafValues>
            -5.1558822393417358e-01 9.4379806518554688e-01</leafValues></_></weakClassifiers></_>
    <!-- stage 12 -->
    <_>
      <maxWeakCount>3</maxWeakCount>
      <stageThreshold>-2.8196096420288086e-01</stageThreshold>
      <weakClassifiers>
        <_>
          <internalNodes>
            0 -1 11 -1341082621 -1369211342 -1883242513 -286277698
            1331617521 -536936453 939487122 526212715</internalNodes>
          <leafValues>
            -6.5607476234436035e-01 9.8472875356674194e-01</leafValues></_>
        <_>
          <internalNodes>
            0 -1 18 -1355055503 -1661353998 -606276 -1342193665
            1073643384 -553648641 -1073889281 1610325787</internalNodes>
          <leafValues>
            -5.1619935035705566e-01 9.7940057516098022e-01</leafValues></_>
        <_>
          <internalNodes>
            0 -1 6 269323544 134217865 144 -1035927551 -1073676280
            -532152320 537100331 491503877</internalNodes>
          <leafValues>
            -7.5904905796051025e-01 8.9031314849853516e-01</leafValues></_></weakClassifiers></_>
    <!-- stage 13 -->
    <_>
      <maxWeakCount>2</maxWeakCount>
      <stageThreshold>3.6559420824050903e-01</stageThreshold>
      <weakClassifiers>
        <_>
          <internalNodes>
            0 -1 3 -390078927 -168853633 -16929169 654082030 -134234234
            -1509982218 2080276310 1041485178</internalNodes>
          <leafValues>
            -6.1016947031021118e-01 9.9325233697891235e-01</leafValues></_>
        <_>
          <internalNodes>
            0 -1 44 -855851374 1726922238 -1342197842 -65539 1602191231
            -805306506 1966816311 63298142</internalNodes>
          <leafValues>
            -6.1937409639358521e-01 9.7576367855072021e-01</leafValues></_></weakClassifiers></_>
    <!-- stage 14 -->
    <_>
      <maxWeakCount>2</maxWeakCount>
      <stageThreshold>1.3780260086059570e-01</stageThreshold>
      <weakClassifiers>
        <_>
          <internalNodes>
            0 -1 10 73744 0 1 -1073741824 98432 268435456 136 1208090880</internalNodes>
          <leafValues>
            -8.6219739913940430e-01 1.</leafValues></_>
        <_>
          <internalNodes>
            0 -1 23 268566529 -2147479296 0 16842752 1 0 -2147483640
            1209010177</internalNodes>
          <leafValues>
            -8.2544505596160889e-01 1.</leafValues></_></weakClassifiers></_></stages>
  <features>
    <_>
      <rect>
        0 0 2 6</rect></_>
    <_>
      <rect>
        0 1 2 6</rect></_>
    <_>
      <rect>
        0 1 3 7</rect></_>
    <_>
      <rect>
        0 2 1 1</rect></_>
    <_>
      <rect>
        0 2 4 6</rect></_>
    <_>
      <rect>
        0 3 2 6</rect></_>
    <_>
      <rect>
        0 4 2 4</rect></_>
    <_>
      <rect>
        0 4 16 6</rect></_>
    <_>
      <rect>
        0 7 1 2</rect></_>
    <_>
      <rect>
        0 7 16 5</rect></_>
    <_>
      <rect>
        0 9 2 1</rect></_>
    <_>
      <rect>
        0 10 2 2</rect></_>
    <_>
      <rect>
        0 12 3 4</rect></_>
    <_>
      <rect>
        0 14 2 2</rect></_>
    <_>
      <rect>
        0 15 2 3</rect></_>
    <_>
      <rect>
        0 15 6 3</rect></_>
    <_>
      <rect>
        0 18 1 1</rect></_>
    <_>
      <rect>
        1 2 1 5</rect></_>
    <_>
      <rect>
        1 3 1 6</rect></_>
    <_>
      <rect>
        1 11 3 3</rect></_>
    <_>
      <rect>
        1 18 1 2</rect></_>
    <_>
      <rect>
        1 19 1 1</rect></_>
    <_>
      <rect>
        1 20 2 1</rect></_>
    <_>
      <rect>
        2 1 1 1</rect></_>
    <_>
      <rect>
        2 12 3 4</rect></_>
    <_>
      <rect>
        2 15 2 3</rect></_>
    <_>
      <rect>
        2 18 1 2</rect></_>
    <_>
      <rect>
        3 18 3 2</rect></_>
    <_>
      <rect>
        4 17 1 2</rect></_>
    <_>
      <rect>
        33 9 5 5</rect></_>
    <_>
      <rect>
        34 11 4 3</rect></_>
    <_>
      <rect>
        37 18 3 2</rect></_>
    <_>
      <rect>
        39 0 3 8</rect></_>
    <_>
      <rect>
        39 2 3 6</rect></_>
    <_>
      <rect>
        39 5 3 3</rect></_>
    <_>
      <rect>
        39 7 3 4</rect></_>
    <_>
      <rect>
        39 12 2 4</rect></_>
    <_>
      <rect>
        39 12 3 4</rect></_>
    <_>
      <rect>
        40 20 2 1</rect></_>
    <_>
      <rect>
        41 21 2 1</rect></_>
    <_>
      <rect>
        42 0 2 7</rect></_>
    <_>
      <rect>
        42 3 2 5</rect></_>
    <_>
      <rect>
        42 8 2 5</rect></_>
    <_>
      <rect>
        42 18 2 2</rect></_>
    <_>
      <rect>
        45 0 1 1</rect></_>
    <_>
      <rect>
        45 0 1 3</rect></_>
    <_>
      <rect>
        45 1 1 4</rect></_>
    <_>
      <rect>
        45 2 1 3</rect></_>
    <_>
      <rect>
        45 3 1 5</rect></_>
    <_>
      <rect>
        45 6 1 4</rect></_>
    <_>
      <rect>
        45 11 1 2</rect></_>
    <_>
      <rect>
        45 13 1 1</rect></_>
    <_>
      <rect>
        45 14 1 1</rect></_>
    <_>
      <rect>
        45 20 1 1</rect></_></features></cascade>
</opencv_storage>
