<?xml version="1.0"?>
<opencv_storage>
<stage10>
  <maxWeakCount>4</maxWeakCount>
  <stageThreshold>-1.2337294816970825e+00</stageThreshold>
  <weakClassifiers>
    <_>
      <internalNodes>
        0 -1 11754 -852242 -789480451 -249926 -1279672353 16449527
        2029518839 -8437762 -671088641</internalNodes>
      <leafValues>
        -6.0521417856216431e-01 6.5894734859466553e-01</leafValues></_>
    <_>
      <internalNodes>
        0 -1 16144 335565309 -1844379264 285279035 -1744306148
        -2146418452 -1196425040 286298542 -390010872</internalNodes>
      <leafValues>
        -6.2927550077438354e-01 6.2369805574417114e-01</leafValues></_>
    <_>
      <internalNodes>
        0 -1 11753 -905723858 1913831445 -1073737656 1910431751
        1082246113 -2146401880 335597720 -738994290</internalNodes>
      <leafValues>
        -6.9554007053375244e-01 6.0120618343353271e-01</leafValues></_>
    <_>
      <internalNodes>
        0 -1 29334 1424814781 -168231937 821967584 821607150 -1073741841
        -52625425 -134283541 -1141523970</internalNodes>
      <leafValues>
        -6.0044598579406738e-01 7.3256450891494751e-01</leafValues></_></weakClassifiers></stage10>
</opencv_storage>
