<?xml version="1.0"?>
<opencv_storage>
<stage6>
  <maxWeakCount>4</maxWeakCount>
  <stageThreshold>-2.2694519162178040e-01</stageThreshold>
  <weakClassifiers>
    <_>
      <internalNodes>
        0 -1 10560 -535629070 340803666 1426063376 1422213195 1111535264
        -1206615879 1627395035 -2814837</internalNodes>
      <leafValues>
        -6.9196426868438721e-01 5.6159418821334839e-01</leafValues></_>
    <_>
      <internalNodes>
        0 -1 9300 -1208486145 -201395202 -134759426 -101190926
        -134220802 -201327629 1979708399 -244337942</internalNodes>
      <leafValues>
        -5.6365412473678589e-01 7.6229846477508545e-01</leafValues></_>
    <_>
      <internalNodes>
        0 -1 19226 1342238940 -1856958062 285888597 354435608
        -1870618484 -1180008408 8389070 772811304</internalNodes>
      <leafValues>
        -7.8220999240875244e-01 5.6009554862976074e-01</leafValues></_>
    <_>
      <internalNodes>
        0 -1 31789 -521213688 1275166731 -754974245 21449811 67244194
        180224 1350824328 -482622533</internalNodes>
      <leafValues>
        -7.5364995002746582e-01 5.5732470750808716e-01</leafValues></_></weakClassifiers></stage6>
</opencv_storage>
