<?xml version="1.0"?>
<opencv_storage>
<stage5>
  <maxWeakCount>4</maxWeakCount>
  <stageThreshold>-2.9182308912277222e-01</stageThreshold>
  <weakClassifiers>
    <_>
      <internalNodes>
        0 -1 31786 -282858529 540380179 36903 250200473 -2129803638
        709804423 -1064776754 696248043</internalNodes>
      <leafValues>
        -7.5342464447021484e-01 5.8718860149383545e-01</leafValues></_>
    <_>
      <internalNodes>
        0 -1 26495 -128928816 1360429082 1073758275 -545029814
        -1423809912 -1995931648 -1878990022 -540220006</internalNodes>
      <leafValues>
        -7.9248571395874023e-01 5.7113158702850342e-01</leafValues></_>
    <_>
      <internalNodes>
        0 -1 12958 -1138753537 -619112183 1078024349 218123540 193163988
        -402488672 -939466033 1530937346</internalNodes>
      <leafValues>
        -7.6189386844635010e-01 6.0963624715805054e-01</leafValues></_>
    <_>
      <internalNodes>
        0 -1 9318 -1199323006 -1828683560 270602276 420483393
        -2111778648 -1040072576 12916874 -3958585</internalNodes>
      <leafValues>
        -6.8824940919876099e-01 6.9887763261795044e-01</leafValues></_></weakClassifiers></stage5>
</opencv_storage>
