<?xml version="1.0"?>
<opencv_storage>
<stage4>
  <maxWeakCount>4</maxWeakCount>
  <stageThreshold>-2.5916197896003723e-01</stageThreshold>
  <weakClassifiers>
    <_>
      <internalNodes>
        0 -1 31721 -230427777 1363300753 -804760427 1360121941
        -1337867622 -1946058614 -2147317078 9429659</internalNodes>
      <leafValues>
        -7.7433627843856812e-01 6.3868612051010132e-01</leafValues></_>
    <_>
      <internalNodes>
        0 -1 25361 -711771849 454624899 26542997 -1761243120 -2105047873
        -1744201589 538249659 964892879</internalNodes>
      <leafValues>
        -8.1015551090240479e-01 5.4678076505661011e-01</leafValues></_>
    <_>
      <internalNodes>
        0 -1 3978 -787222125 -678968247 1090748571 -113142781
        -1741996021 -1677684718 -933197429 1107935310</internalNodes>
      <leafValues>
        -7.1964919567108154e-01 6.6908603906631470e-01</leafValues></_>
    <_>
      <internalNodes>
        0 -1 29303 -367015174 -788340528 65561 353481235 142639362
        -1342128120 -1744781175 -1953701677</internalNodes>
      <leafValues>
        -6.7470765113830566e-01 6.8804270029067993e-01</leafValues></_></weakClassifiers></stage4>
</opencv_storage>
