<?xml version="1.0"?>
<opencv_storage>
<stage4>
  <maxWeakCount>4</maxWeakCount>
  <stageThreshold>-3.0042731761932373e-01</stageThreshold>
  <weakClassifiers>
    <_>
      <internalNodes>
        0 -1 31721 -702546945 1967341781 1073823825 1360379907
        -1207957286 -1610514424 -2113893286 546304755</internalNodes>
      <leafValues>
        -7.8021979331970215e-01 6.1579895019531250e-01</leafValues></_>
    <_>
      <internalNodes>
        0 -1 21911 -785783343 -1792851391 1090605321 -922660607
        -1845001323 -1996029943 -1853232504 -1933262423</internalNodes>
      <leafValues>
        -7.1000033617019653e-01 6.3085007667541504e-01</leafValues></_>
    <_>
      <internalNodes>
        0 -1 19394 278142357 -753713127 -1593710119 -182513468 982176155
        -129408975 1744873615 993656875</internalNodes>
      <leafValues>
        -7.9051071405410767e-01 5.5533611774444580e-01</leafValues></_>
    <_>
      <internalNodes>
        0 -1 30872 -631783190 -767915962 196680 386519203 1610645578
        -2142298078 -1458913048 -707800439</internalNodes>
      <leafValues>
        -6.9092011451721191e-01 6.3945311307907104e-01</leafValues></_></weakClassifiers></stage4>
</opencv_storage>
