<?xml version="1.0"?>
<opencv_storage>
<stage10>
  <maxWeakCount>4</maxWeakCount>
  <stageThreshold>-4.0589293837547302e-01</stageThreshold>
  <weakClassifiers>
    <_>
      <internalNodes>
        0 -1 19389 1342488825 276873500 -1659894715 307363841
        -1870561048 -2004320256 17336846 -1734686624</internalNodes>
      <leafValues>
        -6.7811161279678345e-01 5.9176027774810791e-01</leafValues></_>
    <_>
      <internalNodes>
        0 -1 2433 -1043611185 -1067892593 4522133 -465534971 436470223
        134283265 722542747 1963003671</internalNodes>
      <leafValues>
        -8.2938134670257568e-01 4.7611770033836365e-01</leafValues></_>
    <_>
      <internalNodes>
        0 -1 31679 -603728756 -602734573 -1929314303 -720027643
        -2113152888 2097315841 134906256 -1604886369</internalNodes>
      <leafValues>
        -7.6819860935211182e-01 5.2735215425491333e-01</leafValues></_>
    <_>
      <internalNodes>
        0 -1 10585 -9634294 1593835497 -136288 -1073741826 -134291457
        -1267499017 2012725169 -202899489</internalNodes>
      <leafValues>
        -6.9562399387359619e-01 7.1730738878250122e-01</leafValues></_></weakClassifiers></stage10>
</opencv_storage>
