<?xml version="1.0"?>
<opencv_storage>
<stage14>
  <maxWeakCount>4</maxWeakCount>
  <stageThreshold>-1.5979173779487610e-01</stageThreshold>
  <weakClassifiers>
    <_>
      <internalNodes>
        0 -1 28746 -2104438753 1146897 -2130690047 18890753 -2146938238
        134250768 -1073739763 -1393579863</internalNodes>
      <leafValues>
        -7.1553611755371094e-01 6.0220992565155029e-01</leafValues></_>
    <_>
      <internalNodes>
        0 -1 19337 -805285230 293666833 285245461 25169938 -536829768
        1526866080 142616715 -1949562744</internalNodes>
      <leafValues>
        -7.0168936252593994e-01 6.7680615186691284e-01</leafValues></_>
    <_>
      <internalNodes>
        0 -1 31799 -1044189078 1140936720 16777218 285343890 293604019
        1082130432 1677861945 -352112625</internalNodes>
      <leafValues>
        -6.8023353815078735e-01 7.1983832120895386e-01</leafValues></_>
    <_>
      <internalNodes>
        0 -1 5540 -1055587115 1090682889 34820 -805265406 -2139012081
        -1073610752 -2147467096 -859762173</internalNodes>
      <leafValues>
        -7.5857430696487427e-01 6.6996914148330688e-01</leafValues></_></weakClassifiers></stage14>
</opencv_storage>
