<?xml version="1.0"?>
<opencv_storage>
<stage2>
  <maxWeakCount>4</maxWeakCount>
  <stageThreshold>-4.1076844930648804e-01</stageThreshold>
  <weakClassifiers>
    <_>
      <internalNodes>
        0 -1 26839 274193535 488227027 285278423 463047089 -1774075749
        478709913 -2092264465 1044357279</internalNodes>
      <leafValues>
        -8.2669788599014282e-01 5.8290600776672363e-01</leafValues></_>
    <_>
      <internalNodes>
        0 -1 2784 -950058601 -784268967 -721292609 -174374553 -750518067
        2021672971 -192328801 2146133963</internalNodes>
      <leafValues>
        -7.5915610790252686e-01 6.2286716699600220e-01</leafValues></_>
    <_>
      <internalNodes>
        0 -1 12707 1493212124 999817232 285495637 -615706599 -2004873088
        436732040 -1986878977 -610790680</internalNodes>
      <leafValues>
        -7.8495949506759644e-01 6.0941451787948608e-01</leafValues></_>
    <_>
      <internalNodes>
        0 -1 1288 -741117699 -788070073 1695678615 -1743630324
        -2134900704 1124204547 1745027619 -70829141</internalNodes>
      <leafValues>
        -7.9280501604080200e-01 5.7802176475524902e-01</leafValues></_></weakClassifiers></stage2>
</opencv_storage>
