<?xml version="1.0"?>
<opencv_storage>
<stage3>
  <maxWeakCount>4</maxWeakCount>
  <stageThreshold>-1.1216031014919281e-01</stageThreshold>
  <weakClassifiers>
    <_>
      <internalNodes>
        0 -1 5333 1133116885 1392517185 1360582997 -49194512 17072789
        285736960 -1786001189 464193722</internalNodes>
      <leafValues>
        -7.9342722892761230e-01 5.5631399154663086e-01</leafValues></_>
    <_>
      <internalNodes>
        0 -1 21121 1363529853 269567124 607207895 491864274 -1474899751
        -1996290950 -2137939824 -1400127336</internalNodes>
      <leafValues>
        -6.5276896953582764e-01 6.8179005384445190e-01</leafValues></_>
    <_>
      <internalNodes>
        0 -1 10560 -117245710 1372619094 1090523416 1560608785
        1099464834 -938983415 1073744219 -72618577</internalNodes>
      <leafValues>
        -6.5313935279846191e-01 6.9104909896850586e-01</leafValues></_>
    <_>
      <internalNodes>
        0 -1 6664 -778661477 -640675449 16863707 -654306937 537108619
        738365872 -939425365 1476495503</internalNodes>
      <leafValues>
        -6.9157224893569946e-01 6.8144834041595459e-01</leafValues></_></weakClassifiers></stage3>
</opencv_storage>
