<?xml version="1.0"?>
<opencv_storage>
<stage6>
  <maxWeakCount>4</maxWeakCount>
  <stageThreshold>-1.3406563997268677e+00</stageThreshold>
  <weakClassifiers>
    <_>
      <internalNodes>
        0 -1 28727 -1034697273 1395884033 16810001 -788430847
        -2147309425 1275103235 1252100399 1402465032</internalNodes>
      <leafValues>
        -6.6129034757614136e-01 6.1240309476852417e-01</leafValues></_>
    <_>
      <internalNodes>
        0 -1 4162 -621323923 1393770769 17842641 1405259905 -804642339
        1527398793 -526300517 -1082725</internalNodes>
      <leafValues>
        -6.5353286266326904e-01 6.6183924674987793e-01</leafValues></_>
    <_>
      <internalNodes>
        0 -1 2360 -2137075249 -716357625 279889 -2126395887 -2147286519
        -1576337374 -1946121575 -616482249</internalNodes>
      <leafValues>
        -6.6605395078659058e-01 6.3509184122085571e-01</leafValues></_>
    <_>
      <internalNodes>
        0 -1 33709 -2147163913 -1342095023 1090707713 873943315
        134417570 -611839983 461409996 -1361065633</internalNodes>
      <leafValues>
        -6.7515134811401367e-01 6.7868310213088989e-01</leafValues></_></weakClassifiers></stage6>
</opencv_storage>
