<?xml version="1.0"?>
<opencv_storage>
<stage7>
  <maxWeakCount>4</maxWeakCount>
  <stageThreshold>-1.3156831264495850e+00</stageThreshold>
  <weakClassifiers>
    <_>
      <internalNodes>
        0 -1 11754 -17105158 821427197 -1070852680 431199815 -2138979329
        880246775 -8570881 -67108865</internalNodes>
      <leafValues>
        -6.0844528675079346e-01 6.6179537773132324e-01</leafValues></_>
    <_>
      <internalNodes>
        0 -1 24637 1501729023 402653209 -2146073515 403739653
        -1744658294 -1191149566 -2013148997 -1194532625</internalNodes>
      <leafValues>
        -6.4431178569793701e-01 6.6237747669219971e-01</leafValues></_>
    <_>
      <internalNodes>
        0 -1 2360 -800161573 2013921346 -2146695151 -1010466809
        545882299 -905346686 -666592263 -301903353</internalNodes>
      <leafValues>
        -6.7150181531906128e-01 6.3966226577758789e-01</leafValues></_>
    <_>
      <internalNodes>
        0 -1 28086 -1878941223 155353361 73757 1427570954 -922174285
        134265617 788662491 1942472907</internalNodes>
      <leafValues>
        -7.0258831977844238e-01 6.5057408809661865e-01</leafValues></_></weakClassifiers></stage7>
</opencv_storage>
