<?xml version="1.0"?>
<opencv_storage>
<stage2>
  <maxWeakCount>4</maxWeakCount>
  <stageThreshold>-4.3900197744369507e-01</stageThreshold>
  <weakClassifiers>
    <_>
      <internalNodes>
        0 -1 9215 -583009313 -585416701 335630683 1461311836 -1946107220
        2013300740 -1626814325 800000650</internalNodes>
      <leafValues>
        -7.8481012582778931e-01 7.0722430944442749e-01</leafValues></_>
    <_>
      <internalNodes>
        0 -1 26839 274191455 487968853 285409623 463045011 -1811906405
        444696720 1229490031 1059758234</internalNodes>
      <leafValues>
        -8.3614236116409302e-01 5.9024184942245483e-01</leafValues></_>
    <_>
      <internalNodes>
        0 -1 2370 -196290049 -683618293 8389781 -184496103 -2104958233
        -108527477 -1065318215 2000714767</internalNodes>
      <leafValues>
        -8.3612507581710815e-01 5.4987633228302002e-01</leafValues></_>
    <_>
      <internalNodes>
        0 -1 14138 1207976182 -246087203 268638589 1560477832 810582204
        -1450704703 -2147477333 1057033365</internalNodes>
      <leafValues>
        -7.7470469474792480e-01 6.3207423686981201e-01</leafValues></_></weakClassifiers></stage2>
</opencv_storage>
