<?xml version="1.0"?>
<opencv_storage>
<stage11>
  <maxWeakCount>4</maxWeakCount>
  <stageThreshold>-2.1443539857864380e-01</stageThreshold>
  <weakClassifiers>
    <_>
      <internalNodes>
        0 -1 28686 -396367169 -444496913 -2147479540 84639744 -96987
        -806891521 1425930117 1200619303</internalNodes>
      <leafValues>
        -5.8855098485946655e-01 6.9977927207946777e-01</leafValues></_>
    <_>
      <internalNodes>
        0 -1 1075 -805060005 1074643104 268451856 1158676736 545800579
        -1969749886 33669327 1797485059</internalNodes>
      <leafValues>
        -7.8426581621170044e-01 5.7959407567977905e-01</leafValues></_>
    <_>
      <internalNodes>
        0 -1 2170 -1051573220 -1073528803 1090554121 34148673 1098957065
        -1069465512 2442 1535181003</internalNodes>
      <leafValues>
        -6.8853223323822021e-01 6.4569830894470215e-01</leafValues></_>
    <_>
      <internalNodes>
        0 -1 18391 145359761 -1199538112 -671055843 -989839216 730104217
        -1476394816 -1949827047 -1685839288</internalNodes>
      <leafValues>
        -7.7564710378646851e-01 5.7688891887664795e-01</leafValues></_></weakClassifiers></stage11>
</opencv_storage>
