<?xml version="1.0"?>
<opencv_storage>
<stage9>
  <maxWeakCount>4</maxWeakCount>
  <stageThreshold>-2.8256195783615112e-01</stageThreshold>
  <weakClassifiers>
    <_>
      <internalNodes>
        0 -1 1294 -585367553 1497387281 34866525 1359446189 1345015606
        1217921162 840052465 1543207598</internalNodes>
      <leafValues>
        -7.3594129085540771e-01 5.0930625200271606e-01</leafValues></_>
    <_>
      <internalNodes>
        0 -1 21210 -1861201707 2002585909 -2147411713 520176024
        -2088729366 -914259573 -503170917 -1616375784</internalNodes>
      <leafValues>
        -6.1682176589965820e-01 6.6672122478485107e-01</leafValues></_>
    <_>
      <internalNodes>
        0 -1 1278 -754952865 1342177536 33390 -553533040 -2012708817
        1910014096 -1912038209 2006091930</internalNodes>
      <leafValues>
        -7.7274543046951294e-01 5.5096042156219482e-01</leafValues></_>
    <_>
      <internalNodes>
        0 -1 6744 -788430685 -786956024 16875771 -1659666387 1212785859
        1208614944 -2011129601 1104398315</internalNodes>
      <leafValues>
        -6.8584400415420532e-01 6.2405800819396973e-01</leafValues></_></weakClassifiers></stage9>
</opencv_storage>
