<?xml version="1.0"?>
<opencv_storage>
<stage5>
  <maxWeakCount>4</maxWeakCount>
  <stageThreshold>-2.8119626641273499e-01</stageThreshold>
  <weakClassifiers>
    <_>
      <internalNodes>
        0 -1 31755 -720645157 327696516 21582322 312037765 -2008953634
        -1156956159 -1040149286 49273018</internalNodes>
      <leafValues>
        -7.2649574279785156e-01 6.0294115543365479e-01</leafValues></_>
    <_>
      <internalNodes>
        0 -1 28760 -1337264929 742588561 -1593507435 1037278275
        -536231518 675317964 -1610557401 748652699</internalNodes>
      <leafValues>
        -8.0808573961257935e-01 4.9642217159271240e-01</leafValues></_>
    <_>
      <internalNodes>
        0 -1 11779 -498605238 135319552 1124254012 1443942530 -511254363
        539133186 -1610466864 -8127985</internalNodes>
      <leafValues>
        -7.7444350719451904e-01 5.5481386184692383e-01</leafValues></_>
    <_>
      <internalNodes>
        0 -1 28698 1845487863 -1325400657 2130701820 -33554964
        -570507777 -1199571249 836582845 -125840204</internalNodes>
      <leafValues>
        -6.0593658685684204e-01 7.6002597808837891e-01</leafValues></_></weakClassifiers></stage5>
</opencv_storage>
