<?xml version="1.0"?>
<opencv_storage>
<stage7>
  <maxWeakCount>4</maxWeakCount>
  <stageThreshold>-1.5073400735855103e-01</stageThreshold>
  <weakClassifiers>
    <_>
      <internalNodes>
        0 -1 21721 -582883947 -78544256 2097173 1565856019 1879226536
        -343392117 8572427 227502259</internalNodes>
      <leafValues>
        -6.4227640628814697e-01 5.8461540937423706e-01</leafValues></_>
    <_>
      <internalNodes>
        0 -1 12912 -1062474976 1896067328 -1072688970 892440595
        -1073569075 -779812346 -2013103989 -409483809</internalNodes>
      <leafValues>
        -6.3904356956481934e-01 6.0477232933044434e-01</leafValues></_>
    <_>
      <internalNodes>
        0 -1 22108 1552995833 -707583660 1090519379 -164888545
        -528446781 -813131742 -268393737 716184216</internalNodes>
      <leafValues>
        -6.9931352138519287e-01 5.9466803073883057e-01</leafValues></_>
    <_>
      <internalNodes>
        0 -1 2967 12976208 1903443969 1090621805 -1958731773 -2138963813
        1226981505 1367511211 -73678198</internalNodes>
      <leafValues>
        -6.4080822467803955e-01 6.4480757713317871e-01</leafValues></_></weakClassifiers></stage7>
</opencv_storage>
