<?xml version="1.0"?>
<opencv_storage>
<stage7>
  <maxWeakCount>4</maxWeakCount>
  <stageThreshold>-3.5235804319381714e-01</stageThreshold>
  <weakClassifiers>
    <_>
      <internalNodes>
        0 -1 2790 285432311 -779411439 276828913 -242998903 1892240363
        176161408 1250033918 2075077355</internalNodes>
      <leafValues>
        -8.2210242748260498e-01 4.8489665985107422e-01</leafValues></_>
    <_>
      <internalNodes>
        0 -1 19233 -1757200131 1327710426 1610691411 -754716667
        -1943493953 -383594360 -2004177730 -1459687388</internalNodes>
      <leafValues>
        -6.4210838079452515e-01 6.2808102369308472e-01</leafValues></_>
    <_>
      <internalNodes>
        0 -1 30390 -532156726 -412679164 134400274 -1325068207
        -2130605926 -1845485368 -2147450855 -631774389</internalNodes>
      <leafValues>
        -6.5187585353851318e-01 6.2965106964111328e-01</leafValues></_>
    <_>
      <internalNodes>
        0 -1 26766 -262442985 -1978269677 268505349 59080707 -1232961093
        -2013134720 838860825 1166645459</internalNodes>
      <leafValues>
        -8.1345987319946289e-01 5.6293910741806030e-01</leafValues></_></weakClassifiers></stage7>
</opencv_storage>
