<?xml version="1.0"?>
<opencv_storage>
<stage10>
  <maxWeakCount>5</maxWeakCount>
  <stageThreshold>1.7942149937152863e-01</stageThreshold>
  <weakClassifiers>
    <_>
      <internalNodes>
        0 -1 34590 -671617793 -4292609 2147287039 -4194321 -65570
        -131075 -513 717205455</internalNodes>
      <leafValues>
        -3.1952661275863647e-01 9.8525393009185791e-01</leafValues></_>
    <_>
      <internalNodes>
        0 -1 33511 1828703390 503168511 -285352337 -1107309067
        -855707802 -1358954497 -805380345 788520959</internalNodes>
      <leafValues>
        -4.9078357219696045e-01 9.3091750144958496e-01</leafValues></_>
    <_>
      <internalNodes>
        0 -1 1392 -699401513 2147483647 -49153 -167772193 -4362753
        -1342193665 -50430561 2144071550</internalNodes>
      <leafValues>
        -4.1442480683326721e-01 9.3558382987976074e-01</leafValues></_>
    <_>
      <internalNodes>
        0 -1 2472 -5767434 -197086 -268501083 -278663386 -8388612
        -524290 -8193 1610577170</internalNodes>
      <leafValues>
        -5.6472355127334595e-01 7.7872496843338013e-01</leafValues></_>
    <_>
      <internalNodes>
        0 -1 2823 -2130348707 -1274965999 -536852325 -2126426095
        -1044354917 -234848039 -1467921829 2142199818</internalNodes>
      <leafValues>
        -6.8590921163558960e-01 6.4936226606369019e-01</leafValues></_></weakClassifiers></stage10>
</opencv_storage>
