<?xml version="1.0"?>
<opencv_storage>
<stage9>
  <maxWeakCount>4</maxWeakCount>
  <stageThreshold>-3.7012654542922974e-01</stageThreshold>
  <weakClassifiers>
    <_>
      <internalNodes>
        0 -1 2425 -1065111397 -704520041 285787213 1799672069 21564479
        -2000142293 -645673281 2136217365</internalNodes>
      <leafValues>
        -8.2608693838119507e-01 4.5341613888740540e-01</leafValues></_>
    <_>
      <internalNodes>
        0 -1 26733 -2069170081 -234646891 67799 425562121 -1585355591
        -83787622 67159433 -842038060</internalNodes>
      <leafValues>
        -5.8692502975463867e-01 6.3843923807144165e-01</leafValues></_>
    <_>
      <internalNodes>
        0 -1 24887 -165089196 109060426 -914062781 -649669819 -930961177
        -1979637757 147884445 147817466</internalNodes>
      <leafValues>
        -7.5286525487899780e-01 5.2378684282302856e-01</leafValues></_>
    <_>
      <internalNodes>
        0 -1 10601 -1820210722 -787382272 285556888 1997635584
        -1944026471 -1073216888 -1072905559 1401463054</internalNodes>
      <leafValues>
        -7.0626562833786011e-01 5.7316976785659790e-01</leafValues></_></weakClassifiers></stage9>
</opencv_storage>
